<?xml version="1.0"?>
<opencv_storage>
<stage12>
  <maxWeakCount>12</maxWeakCount>
  <stageThreshold>-6.7525839805603027e-01</stageThreshold>
  <weakClassifiers>
    <_>
      <internalNodes>
        0 -1 130535 6.1889563221484423e-04</internalNodes>
      <leafValues>
        -1.6260161995887756e-01 6.6153848171234131e-01</leafValues></_>
    <_>
      <internalNodes>
        0 -1 133688 8.4465899271890521e-04</internalNodes>
      <leafValues>
        2.8061082959175110e-01 -3.5142773389816284e-01</leafValues></_>
    <_>
      <internalNodes>
        0 -1 154210 1.3364444021135569e-04</internalNodes>
      <leafValues>
        -2.5084280967712402e-01 3.9598813652992249e-01</leafValues></_>
    <_>
      <internalNodes>
        0 -1 99951 2.3612577933818102e-04</internalNodes>
      <leafValues>
        -2.4480359256267548e-01 4.7725349664688110e-01</leafValues></_>
    <_>
      <internalNodes>
        0 -1 159303 1.1072955094277859e-03</internalNodes>
      <leafValues>
        -2.7112233638763428e-01 4.1798698902130127e-01</leafValues></_>
    <_>
      <internalNodes>
        0 -1 79331 4.4535519555211067e-04</internalNodes>
      <leafValues>
        -1.8866395950317383e-01 5.4273980855941772e-01</leafValues></_>
    <_>
      <internalNodes>
        0 -1 105110 -1.5984577476046979e-04</internalNodes>
      <leafValues>
        -2.9648286104202271e-01 3.7280982732772827e-01</leafValues></_>
    <_>
      <internalNodes>
        0 -1 155149 6.8607390858232975e-04</internalNodes>
      <leafValues>
        -2.4247103929519653e-01 4.5063972473144531e-01</leafValues></_>
    <_>
      <internalNodes>
        0 -1 48446 -2.4189884425140917e-04</internalNodes>
      <leafValues>
        3.7844336032867432e-01 -3.3620607852935791e-01</leafValues></_>
    <_>
      <internalNodes>
        0 -1 37294 2.8256153687834740e-02</internalNodes>
      <leafValues>
        2.4374631047248840e-01 -6.1526274681091309e-01</leafValues></_>
    <_>
      <internalNodes>
        0 -1 74109 5.6790043599903584e-03</internalNodes>
      <leafValues>
        -1.7056827247142792e-01 8.4962797164916992e-01</leafValues></_>
    <_>
      <internalNodes>
        0 -1 160224 1.7394174356013536e-03</internalNodes>
      <leafValues>
        -2.4989542365074158e-01 4.5619231462478638e-01</leafValues></_></weakClassifiers></stage12>
</opencv_storage>
