<?xml version="1.0"?>
<opencv_storage>
<stage6>
  <maxWeakCount>10</maxWeakCount>
  <stageThreshold>-9.2684864997863770e-01</stageThreshold>
  <weakClassifiers>
    <_>
      <internalNodes>
        0 -1 1062 -4.1383242607116699e-01</internalNodes>
      <leafValues>
        6.4705884456634521e-01 -3.0143541097640991e-01</leafValues></_>
    <_>
      <internalNodes>
        0 -1 26485 -1.7318628728389740e-02</internalNodes>
      <leafValues>
        4.5894536375999451e-01 -2.9550683498382568e-01</leafValues></_>
    <_>
      <internalNodes>
        0 -1 121515 8.0291591584682465e-03</internalNodes>
      <leafValues>
        -1.5019777417182922e-01 7.1846055984497070e-01</leafValues></_>
    <_>
      <internalNodes>
        0 -1 154392 -6.7319674417376518e-04</internalNodes>
      <leafValues>
        4.2956337332725525e-01 -2.4129858613014221e-01</leafValues></_>
    <_>
      <internalNodes>
        0 -1 75065 -7.4405032210052013e-03</internalNodes>
      <leafValues>
        3.4565830230712891e-01 -3.9321899414062500e-01</leafValues></_>
    <_>
      <internalNodes>
        0 -1 76015 4.1157029569149017e-02</internalNodes>
      <leafValues>
        1.7640668153762817e-01 -8.2778680324554443e-01</leafValues></_>
    <_>
      <internalNodes>
        0 -1 77642 -2.9252324253320694e-02</internalNodes>
      <leafValues>
        -7.5169253349304199e-01 2.2867880761623383e-01</leafValues></_>
    <_>
      <internalNodes>
        0 -1 69662 -1.0658665560185909e-03</internalNodes>
      <leafValues>
        4.1919010877609253e-01 -3.5971200466156006e-01</leafValues></_>
    <_>
      <internalNodes>
        0 -1 140158 -1.1636423878371716e-02</internalNodes>
      <leafValues>
        6.1987841129302979e-01 -2.0325581729412079e-01</leafValues></_>
    <_>
      <internalNodes>
        0 -1 78245 -1.8333750776946545e-03</internalNodes>
      <leafValues>
        6.0830277204513550e-01 -1.6621080040931702e-01</leafValues></_></weakClassifiers></stage6>
</opencv_storage>
