<?xml version="1.0"?>
<opencv_storage>
<stage11>
  <maxWeakCount>11</maxWeakCount>
  <stageThreshold>-7.9158246517181396e-01</stageThreshold>
  <weakClassifiers>
    <_>
      <internalNodes>
        0 -1 9463 1.0280734859406948e-03</internalNodes>
      <leafValues>
        -2.6373627781867981e-01 3.9534884691238403e-01</leafValues></_>
    <_>
      <internalNodes>
        0 -1 12616 1.6354640945792198e-02</internalNodes>
      <leafValues>
        1.3575020432472229e-01 -7.5411915779113770e-01</leafValues></_>
    <_>
      <internalNodes>
        0 -1 4367 -4.6475030481815338e-02</internalNodes>
      <leafValues>
        -5.1141726970672607e-01 2.0672702789306641e-01</leafValues></_>
    <_>
      <internalNodes>
        0 -1 108720 -5.0096483901143074e-03</internalNodes>
      <leafValues>
        -8.1997489929199219e-01 1.1155766248703003e-01</leafValues></_>
    <_>
      <internalNodes>
        0 -1 160627 -7.4108786066062748e-05</internalNodes>
      <leafValues>
        -3.7819927930831909e-01 2.3811240494251251e-01</leafValues></_>
    <_>
      <internalNodes>
        0 -1 135815 1.3924085069447756e-03</internalNodes>
      <leafValues>
        2.0762544870376587e-01 -5.1146340370178223e-01</leafValues></_>
    <_>
      <internalNodes>
        0 -1 129262 -5.4677892476320267e-02</internalNodes>
      <leafValues>
        8.4602057933807373e-01 -1.7036056518554688e-01</leafValues></_>
    <_>
      <internalNodes>
        0 -1 145534 3.1900018453598022e-02</internalNodes>
      <leafValues>
        -4.1680604219436646e-02 8.9642304182052612e-01</leafValues></_>
    <_>
      <internalNodes>
        0 -1 141086 -3.6773029714822769e-03</internalNodes>
      <leafValues>
        -8.6131268739700317e-01 1.0897704213857651e-01</leafValues></_>
    <_>
      <internalNodes>
        0 -1 160958 1.7537083476781845e-04</internalNodes>
      <leafValues>
        2.8379184007644653e-01 -3.4782811999320984e-01</leafValues></_>
    <_>
      <internalNodes>
        0 -1 48730 -1.9987011328339577e-03</internalNodes>
      <leafValues>
        4.0444651246070862e-01 -3.0041128396987915e-01</leafValues></_></weakClassifiers></stage11>
</opencv_storage>
